svm_type c_svc
kernel_type rbf
gamma 0.00012207
nr_class 2
total_sv 15
rho -0.879389
label 0 1
nr_sv 6 9
SV
164.5385772607197 0:-0.469713 1:-1 2:-0.670446 3:-0.505698 4:-0.204508 5:-1 6:-1 7:-1 8:0.86137 9:-0.059119 10:-0.482937 11:-0.209097 12:-0.876416 13:-0.687493 14:1 15:-0.276106 16:0.88921 17:0.28414 18:-0.636352 19:-0.402605 20:-0.9177 21:-0.303015 22:-0.531834 23:0.33263 24:-0.249997 25:-0.681805 26:-0.059119 27:0.562479 28:-0.303035 29:-0.185617 30:0.590917 31:-0.406831 32:-0.28016 33:1 34:-0.841588 35:0.363844 36:1 37:-1 38:-0.825751 39:-0.69459 40:-0.172736 41:-1 42:-0.272704 43:-0.409079 44:-1 45:0.292611 46:-1 47:-0.760693 48:-1 49:-0.103909 50:-1 51:0.333314 52:-1 53:-1 54:-0.667614 55:-0.555773 56:-1 57:-0.743175 58:-0.0227038 59:-0.103909 60:-1 61:-0.239684 62:-0.215918 
144.8199623202988 0:1 1:0.0285838 2:-1 3:-0.792854 4:1 5:0.864283 6:-0.750644 7:-0.725707 8:-0.609992 9:-0.605708 10:-0.349986 11:0.49143 12:-1 13:0.571389 14:-0.085728 15:0.137552 16:-0.524988 17:-0.192836 18:-0.085696 19:-0.624483 20:-0.689615 21:-1 22:-0.803807 23:-1 24:-1 25:1 26:-0.605708 27:0.571389 28:-0.474277 29:0.791665 30:1 31:-1 32:-0.688124 33:-1 34:-0.203438 35:-0.704816 36:0.257128 37:-0.277299 38:-0.780947 39:-1 40:-0.739995 41:-0.442845 42:-0.542848 43:-0.628568 44:-0.582134 45:-0.674993 46:-1 47:-0.0590826 48:-1 49:-1 50:1 51:-0.580945 52:-0.164268 53:-0.378559 54:-1 55:-0.162324 56:1 57:-0.354276 58:-1 59:-1 60:0.577114 61:-0.522071 62:-1 
312.6330182044774 0:-0.830912 1:-1 2:-1 3:-0.842386 4:0.141297 5:-1 6:-0.620555 7:-1 8:-1 9:-1 10:-1 11:-1 12:-1 13:-0.701078 14:-0.82608 15:-0.48069 16:-1 17:0.228318 18:-1 19:1 20:-0.921278 21:1 22:-0.85072 23:-1 24:0.673916 25:0.217394 26:-0.399978 27:-0.103289 28:1 29:-0.0262658 30:0.521756 31:-0.432618 32:0.4691 33:0.913055 34:-1 35:0.291306 36:-1 37:-0.725054 38:1 39:-1 40:-0.406534 41:-0.788035 42:0.391296 43:-1 44:-0.682052 45:-1 46:-0.785707 47:-0.780836 48:-0.692921 49:1 50:-0.492743 51:-0.362295 52:-1 53:-1 54:-0.745653 55:-1 56:-0.830912 57:-1 58:0.402133 59:1 60:-1 61:1 62:-0.624985 
168.2980098876571 0:-0.0982173 1:0.739122 2:-0.579735 3:-1 4:0.521753 5:-1 6:-0.873524 7:-0.721752 8:-0.472454 9:1 10:-1 11:-0.495641 12:-1 13:-0.601474 14:-1 15:-0.307576 16:0.445653 17:-1 18:-0.536256 19:-0.809534 20:-0.0553737 21:-1 22:-0.402906 23:0.699621 24:-1 25:-1 26:1 27:-1 28:-1 29:0.0386641 30:0.623229 31:-1 32:-0.786796 33:0.275399 34:0.717217 35:-1 36:0.275255 37:0.0997344 38:-1 39:-0.220995 40:-0.736245 41:-0.434772 42:-0.536256 43:-0.623213 44:-1 45:-1 46:1 47:-0.633109 48:-0.590598 49:-0.619063 50:-1 51:0.275351 52:0.695683 53:-1 54:-1 55:-0.716748 56:0.127213 57:-1 58:0.869539 59:-0.619063 60:1 61:-1 62:1 
339.6151216706409 0:-1 1:-0.888353 2:-0.325581 3:-0.730244 4:-1 5:-0.595372 6:-0.837637 7:-0.910681 8:-0.915352 9:-0.871605 10:0.0581491 11:-1 12:-0.645932 13:-0.744198 14:-0.479072 15:1 16:0.23724 17:-0.211594 18:0.33952 19:-0.816605 20:-0.764209 21:-0.429483 22:0.0220007 23:1 24:-1 25:-0.609285 26:-0.743266 27:-0.104664 28:-1 29:1 30:-0.609285 31:-0.919055 32:-1 33:-0.590707 34:-0.74065 35:-0.816264 36:0.6371 37:1 38:-1 39:1 40:-0.322777 41:-0.546508 42:-1 43:-0.274453 44:-0.183749 45:-1 46:0.192035 47:-0.370642 48:-0.21165 49:-0.510974 50:0.0852583 51:0.364348 52:-0.863929 53:-1 54:0.55093 55:1 56:0.0852752 57:-0.579552 58:1 59:0.222617 60:0.155332 61:-0.922185 62:-1 
328.8428860421554 0:-0.731512 1:-0.74109 2:-0.937418 3:-0.655888 4:-0.546953 5:-0.718474 6:-0.849367 7:-0.254382 8:-0.430631 9:-0.583186 10:-0.754573 11:-0.136573 12:-0.57768 13:-0.288032 14:-0.792896 15:-0.86256 16:-0.784805 17:-0.512402 18:-0.654784 19:-0.914939 20:1 21:-0.40452 22:-0.881482 23:-0.747 24:-0.738948 25:-0.0938568 26:-0.166372 27:0.186613 28:-0.100194 29:-0.652094 30:0.20821 31:-0.699675 32:-0.851485 33:-0.430457 34:1 35:-0.896727 36:-0.240584 37:-0.50884 38:0.0917092 39:-0.826064 40:-0.764419 41:-0.747592 42:-0.861952 43:-0.719515 44:-0.873815 45:0.963327 46:-0.276925 47:-0.520285 48:-0.390531 49:0.304366 50:0.107471 51:-0.810155 52:-0.621388 53:-0.343063 54:-0.67185 55:-0.915681 56:-0.395918 57:0.0239559 58:-0.628913 59:-0.659753 60:-0.40456 61:-0.927839 62:-0.627848 
-22.66774795426201 0:-0.734095 1:-1 2:-1 3:-0.752139 4:0.196598 5:-1 6:-0.552447 7:-1 8:-0.0666667 9:-0.0564142 10:-1 11:-1 12:-0.628205 13:-0.52992 14:-0.726496 15:-0.455527 16:-0.431621 17:-1 18:0.094016 19:-0.775336 20:-1 21:-1 22:-0.765244 23:0.336461 24:-0.0598291 25:-0.521364 26:-1 27:-0.0598394 28:-0.580629 29:0.225069 30:-1 31:-0.405126 32:-0.236673 33:0.50429 34:-0.880856 35:-0.228705 36:-1 37:-0.567624 38:-0.475781 39:-1 40:-0.688889 41:1 42:-1 43:-0.555561 44:1 45:0.166667 46:-1 47:-0.527054 48:-0.0341827 49:0.348001 50:-0.202296 51:-1 52:1 53:-0.256411 54:1 55:0.0023259 56:-0.734095 57:-0.227355 58:-1 59:-0.101333 60:-1 61:-1 62:-1 
-87.09827698261282 0:-0.118128 1:-0.622051 2:-0.72601 3:-0.360641 4:0.102377 5:-0.177955 6:-0.477741 7:-0.637156 8:-0.684721 9:-0.130713 10:0.0748021 11:-0.890379 12:-0.691737 13:-0.48031 14:-0.8992 15:0.504802 16:-0.266899 17:-1 18:0.007872 19:-0.047932 20:-0.840324 21:-0.517066 22:-0.134915 23:-0.753723 24:-0.792122 25:-0.206306 26:-0.0437735 27:-0.48031 28:-0.884105 29:0.241481 30:-0.470852 31:-0.397157 32:-0.89607 33:0.385841 34:-0.45119 35:-0.577475 36:-0.722809 37:0.672999 38:-0.9517 39:0.35435 40:0.0891255 41:0.228345 42:-0.294464 43:-0.344912 44:-0.0787411 45:-0.283465 46:-0.192824 47:-0.838777 48:-0.0212441 49:-0.172095 50:-0.853003 51:-0.53806 52:0.289751 53:0.233051 54:-0.686767 55:-0.138166 56:-0.755032 57:-0.430573 58:0.354317 59:-0.172095 60:-0.91306 61:-0.736581 62:-0.728347 
-123.1029541352845 0:-1 1:-0.127271 2:-1 3:-1 4:0.272759 5:-1 6:-0.047939 7:-1 8:-1 9:0.00364319 10:-1 11:-0.367263 12:-0.604541 13:1 14:-1 15:0.158255 16:-1 17:-1 18:-1 19:-0.522073 20:-1 21:-1 22:-1 23:0.421524 24:1 25:-1 26:0.00364319 27:1 28:-0.553936 29:-1 30:0.0182001 31:0.265473 32:1 33:0.600035 34:-0.746546 35:-0.541458 36:-1 37:-1 38:0.115169 39:-1 40:-1 41:-0.290901 42:-1 43:-1 44:0.0636481 45:0.654564 46:0.43377 47:1 48:0.0272897 49:-1 50:-1 51:-1 52:-1 53:-1 54:-0.574541 55:-1 56:-1 57:-0.178178 58:-1 59:0.911731 60:-1 61:-0.391733 62:-1 
-371.3847412152602 0:-0.0643375 1:-0.639091 2:-0.563901 3:-0.563901 4:0.0526758 5:0.96233 6:-0.475053 7:-0.711269 8:0.231577 9:-0.169905 10:-0.657885 11:-1 12:-0.345869 13:-0.586459 14:-0.278208 15:0.91588 16:1 17:-1 18:-1 19:-0.802358 20:-1 21:-0.538839 22:-0.380466 23:-0.412142 24:-0.00751301 25:-1 26:-0.584953 27:-0.172918 28:-0.262162 29:-0.191744 30:0.263146 31:-0.476675 32:-0.449212 33:-0.33832 34:-1 35:-0.988553 36:0.323302 37:0.141065 38:-0.308279 39:-0.191701 40:-0.726308 41:-0.413517 42:-0.037568 43:-0.218033 44:-0.560138 45:-0.657885 46:0.185806 47:-0.610887 48:-0.575174 49:-1 50:-1 51:-0.117773 52:0.319527 53:-1 54:-0.736095 55:-1 56:-0.532153 57:-0.660143 58:0.293258 59:0.581106 60:-0.169905 61:-0.496914 62:-0.481189 
-34.7799712948902 0:0.296301 1:1 2:0.208306 3:-0.0937563 4:-0.270799 5:-0.0937405 6:1 7:1 8:-1 9:0.149978 10:-1 11:-1 12:-0.77343 13:-0.427071 14:-1 15:-0.336434 16:0.385403 17:-1 18:1 19:-0.726182 20:-1 21:-1 22:-1 23:-0.185567 24:-0.312499 25:-1 26:0.724994 27:-0.427071 28:-0.488899 29:-0.626724 30:0.166657 31:-0.275008 32:-0.198096 33:-0.083293 34:-0.564381 35:-0.867041 36:-1 37:-1 38:-0.680543 39:-0.440082 40:-1 41:-0.593737 42:1 43:-1 44:-1 45:0.421876 46:-0.589276 47:0.474903 48:-0.411436 49:-1 50:-1 51:-0.388871 52:-0.390605 53:-0.54686 54:-1 55:-0.592792 56:-1 57:-0.0583529 58:-1 59:0.642878 60:-1 61:-0.651506 62:-0.281261 
-187.1913030995919 0:-1 1:0.0549356 2:-1 3:-1 4:0.538483 5:-1 6:-0.616383 7:-0.57802 8:1 9:0.213182 10:0.5 11:0.147257 12:-0.521978 13:-1 14:-1 15:-0.649982 16:-1 17:-1 18:-1 19:-1 20:-0.840831 21:-1 22:-1 23:-1 24:-0.032967 25:0.846167 26:-1 27:0.208778 28:-0.191212 29:-0.606228 30:0.230778 31:-0.235162 32:-0.624634 33:-1 34:-1 35:1 36:-1 37:-0.444088 38:0.0109941 39:-1 40:1 41:-0.142857 42:-1 43:-0.428579 44:-1 45:1 46:0.73311 47:-0.775984 48:0.241765 49:-0.422285 50:0.0256195 51:-0.355314 52:-1 53:-1 54:-0.614286 55:-0.570432 56:-0.316243 57:-1 58:-0.0549536 59:-0.422285 60:-1 61:-0.63237 62:-0.241759 
-165.4810919033177 0:-0.528607 1:-0.27271 2:-0.560595 3:-0.560595 4:0.590914 5:0.647658 6:-0.735528 7:-0.56362 8:-0.448485 9:-0.163612 10:0.206434 11:-0.868177 12:-0.588077 13:-0.583324 14:-0.515136 15:0.689096 16:-0.748096 17:0.28414 18:-0.272704 19:-0.502175 20:-0.945133 21:-0.535343 22:-0.271726 23:0.184629 24:-0.583342 25:0.484852 26:-0.790903 27:-0.374986 28:-0.814136 29:0.764504 30:-0.575741 31:-0.604531 32:-0.772527 33:4.40005e-05 34:-0.894392 35:-0.509717 36:-1 37:-0.233489 38:-0.651502 39:0.628799 40:-0.172736 41:-0.409071 42:-0.757568 43:-0.0151838 44:-0.778402 45:-0.482937 46:-0.402583 47:-0.606239 48:0.0700605 49:-0.800857 50:-0.64646 51:1 52:0.551129 53:-0.176153 54:-0.246589 55:0.184567 56:-0.882152 57:-0.828783 58:0.954506 59:-0.601714 60:-1 61:-0.619825 62:-1 
-157.9338254930937 0:0.057182 1:-0.533972 2:-0.436882 3:-0.296117 4:-0.32036 5:0.266954 6:-0.915275 7:-0.254382 8:-0.558249 9:-0.73206 10:-0.116526 11:-0.83108 12:-0.472084 13:-1 14:-1 15:-0.226896 16:0.936891 17:-1 18:-0.067968 19:-0.234403 20:-0.859371 21:-0.702291 22:1 23:-0.240921 24:-0.466015 25:-0.184465 26:-0.196125 27:-1 28:-0.642722 29:0.391586 30:-0.728174 31:-0.662125 32:-0.680108 33:-0.145598 34:-0.729331 35:0.120988 36:-0.145723 37:0.964588 38:-0.553399 39:0.304631 40:0.413595 41:-0.242736 42:-1 43:-0.495138 44:0.135896 45:-0.779143 46:0.148388 47:-0.828175 48:0.371377 49:0.0207923 50:-1 51:-0.430407 52:-0.432023 53:0.478174 54:-0.772821 55:-0.430721 56:-0.848987 57:-0.7806 58:0.252408 59:-0.489578 60:-1 61:-0.675192 62:-1 
-309.1076633076362 0:-1 1:-0.150455 2:-0.486704 3:0.79645 4:-0.380491 5:-1 6:-0.536598 7:-1 8:-0.677878 9:-1 10:-0.597325 11:-0.692019 12:-1 13:-0.0265647 14:-0.433632 15:-1 16:-1 17:1 18:-1 19:-0.534769 20:-0.102738 21:0.628323 22:-1 23:-1 24:0.168135 25:-0.504396 26:-0.511482 27:-0.0265647 28:-0.131572 29:0.268427 30:-0.504396 31:-0.0760906 32:-0.717327 33:-0.221191 34:-0.506559 35:-0.56171 36:-1 37:0.343063 38:0.0855452 39:-0.524309 40:-1 41:0.035412 42:0.132736 43:-0.539806 44:-0.482274 45:0.207981 46:-0.65106 47:-0.502385 48:1 49:0.395736 50:-0.174017 51:-0.480801 52:0.553118 53:-1 54:-0.689376 55:-1 56:-0.724668 57:1 58:-0.238906 59:-0.534737 60:-0.511482 61:-1 62:-1 
