svm_type c_svc
kernel_type rbf
gamma 0.0078125
nr_class 3
total_sv 24
rho -0.334714 -0.567287 -0.953823
label 0 4 5
nr_sv 9 6 9
SV
0.6285754619834307 0.6763058391782462 0:-1 1:-1 2:-1 3:1 4:0.617734 5:-1 6:-1 7:-0.66496 8:0.0277733 9:-1 10:-1 11:-1 12:-1 13:-0.650798 14:0.443149 15:1 16:-1 17:-1 18:-1 19:-1 20:-1 21:-1 22:-1 23:-1 24:1 25:-1 26:-1 27:-1 28:1 29:-1 30:0.64443 31:-1 32:-0.377788 33:-1 34:-1 35:-1 36:-1 37:-1 38:-1 39:-0.318521 40:-1 41:-1 42:0.31111 43:-1 44:-1 45:-1 46:0.533333 47:-1 48:1 49:-1 50:-1 51:-0.125935 52:-1 53:-0.318526 54:-0.177785 55:-1 56:-1 57:-1 58:-1 59:-1 60:0.348136 61:-1 62:-1 63:1 64:-1 65:-1 66:-1 67:-1 
2.376632871053255 3.187799898285812 0:-0.462849 1:-0.108956 2:0.039529 3:-1 4:-1 5:-1 6:-1 7:-0.744461 8:-1 9:-1 10:-1 11:-1 12:-1 13:-1 14:-1 15:-1 16:-1 17:1 18:-1 19:-1 20:-1 21:-1 22:-1 23:0.641629 24:-1 25:-0.406786 26:-0.262718 27:0.782089 28:-1 29:1 30:0.254227 31:-1 32:-0.0508617 33:1 34:-1 35:-1 36:-1 37:-0.306974 38:0.537533 39:0.0395449 40:0.16384 41:-1 42:1 43:-0.439378 44:-1 45:-1 46:0.169475 47:-1 48:-0.237287 49:-1 50:-0.186455 51:1 52:-1 53:-0.220347 54:-0.372886 55:1 56:1 57:-0.0678143 58:-1 59:-1 60:-0.48588 61:-0.672318 62:-1 63:-1 64:-0.36625 65:-0.216104 66:-1 67:-1 
8.999303221387308 7.684954538439663 0:0.0278416 1:0.136714 2:-0.336932 3:-0.148646 4:-0.606523 5:0.160372 6:-0.655651 7:-0.755513 8:1 9:-0.599993 10:-1 11:-0.941626 12:-0.704869 13:-0.915064 14:-0.64897 15:-0.861002 16:-0.599993 17:-0.574764 18:-0.82704 19:-0.923192 20:-1 21:-0.403235 22:-1 23:0.0470886 24:-0.0270003 25:-0.621616 26:-1 27:-0.431643 28:-0.189194 29:0.0630716 30:-0.199985 31:-1 32:-0.697294 33:-0.362155 34:-0.764882 35:-0.297297 36:-1 37:-0.778995 38:-0.019277 39:-0.336921 40:-0.628854 41:-0.147482 42:-0.681102 43:-0.463624 44:-1 45:-0.619452 46:-0.502697 47:-0.623775 48:-0.756773 49:-0.805402 50:-0.481076 51:-0.681086 52:-0.708112 53:-0.751355 54:-1 55:0.913545 56:-0.149527 57:-0.108129 58:0.383808 59:-0.578384 60:-0.672066 61:-1 62:-0.900908 63:-0.675669 64:-0.59576 65:1 66:-0.627061 67:-1 
0 1.567081473265332 0:0.467222 1:-1 2:-0.43212 3:-0.583323 4:-1 5:-0.432081 6:-1 7:-0.0227888 8:-1 9:0.027787 10:-1 11:1 12:-1 13:-0.854502 14:-0.799569 15:-1 16:-1 17:-0.635809 18:-0.703712 19:0.710518 20:0.250023 21:-1 22:-1 23:-0.701067 24:-0.166637 25:-1 26:-0.597233 27:-1 28:-0.444433 29:-0.635809 30:-0.314833 31:-0.657417 32:-0.74075 33:-1 34:-0.194423 35:-1 36:-1 37:-1 38:0.679956 39:-0.432081 40:-1 41:-1 42:-1 43:-1 44:-1 45:-1 46:-0.36111 47:-1 48:-0.166637 49:-1 50:-1 51:-0.817906 52:1 53:-0.716042 54:-1 55:-1 56:-0.635809 57:-1 58:-1 59:0.444457 60:-0.719143 61:-1 62:-0.830252 63:-1 64:-0.653792 65:-0.571746 66:-1 67:-1 
4.534490269000519 1.230945579086739 0:-0.06096 1:-1 2:-0.0913551 3:-0.333326 4:-1 5:-0.545671 6:-1 7:-0.218231 8:-1 9:-0.177785 10:-1 11:1 12:-1 13:-0.883605 14:-0.679298 15:-0.714289 16:-0.725941 17:-1 18:-0.52592 19:1 20:1 21:-1 22:-1 23:-0.76086 24:-0.666682 25:-1 26:-0.677795 27:-1 28:-0.111104 29:-0.708655 30:-0.451881 31:-0.725941 32:-0.377788 33:-1 34:-0.677795 35:-1 36:-1 37:-0.697136 38:0.343947 39:-0.0913412 40:-1 41:-1 42:-1 43:-1 44:-1 45:-1 46:-0.488897 47:-1 48:-0.333318 49:-1 50:-1 51:-0.854329 52:0.333333 53:-0.772837 54:-1 55:-1 56:-1 57:-1 58:-1 59:-0.229619 60:-0.550611 61:-1 62:-0.864205 63:-0.666669 64:-0.446044 65:-0.486113 66:-1 67:-1 
0 1.212426937929079 0:-1 1:-1 2:-1 3:-0.678565 4:-1 5:-1 6:-1 7:0.292304 8:-1 9:-1 10:-1 11:0.0800011 12:-1 13:-1 14:-0.38152 15:-0.448983 16:0.0571281 17:-1 18:-1 19:0.42105 20:-1 21:0.577114 22:-1 23:-1 24:0.285708 25:1 26:-1 27:-1 28:-0.571422 29:-0.438079 30:0.0571651 31:0.0571281 32:1 33:-0.578565 34:-1 35:-1 36:-1 37:-1 38:-1 39:-0.561893 40:-1 41:-1 42:-0.157118 43:-1 44:-1 45:-1 46:0.314282 47:0.49143 48:-0.357124 49:-1 50:-0.314277 51:-0.719042 52:0.028575 53:-0.780948 54:0.0571281 55:-1 56:-1 57:-1 58:-1 59:-1 60:-0.566658 61:-1 62:-1 63:-0.357143 64:-1 65:-1 66:-1 67:-1 
4.523057251799968 0.6958823782360992 0:-1 1:-1 2:-1 3:-0.540821 4:-1 5:-0.374151 6:-1 7:1 8:-0.528062 9:-1 10:-1 11:0.432654 12:-1 13:-1 14:-0.558225 15:-0.34403 16:0.887742 17:-1 18:-0.673472 19:0.740062 20:-0.540815 21:0.126518 22:-1 23:-1 24:-0.540815 25:0.785696 26:-1 27:-1 28:-0.0816446 29:-0.598639 30:-0.244903 31:-1 32:-0.428579 33:-1 34:-0.556126 35:-1 36:-1 37:-0.582769 38:-1 39:-0.374151 40:-1 41:-0.195347 42:-1 43:-1 44:-1 45:-1 46:-0.765309 47:-0.644899 48:-1 49:-1 50:-0.510212 51:-0.799322 52:-0.265311 53:-0.687078 54:-0.622452 55:-0.598639 56:-0.197278 57:-1 58:-1 59:-1 60:-0.690478 61:-1 62:-1 63:-0.234698 64:-1 65:-1 66:-1 67:-1 
1.957088388490645 1.707128084012047 0:-0.143455 1:-1 2:0.657641 3:0.216213 4:-1 5:0.657666 6:-1 7:-1 8:-1 9:1 10:-1 11:-0.708108 12:-1 13:-0.575291 14:-1 15:-0.652511 16:1 17:-1 18:0.729728 19:-1 20:-1 21:-1 22:-1 23:-1 24:0.216227 25:-1 26:-1 27:-1 28:-1 29:-1 30:1 31:1 32:0.513503 33:-1 34:0.175675 35:-1 36:-1 37:-1 38:-1 39:-1 40:-1 41:-1 42:0.594607 43:-1 44:-1 45:-1 46:0.864853 47:-0.0594561 48:0.216227 49:-1 50:-1 51:-0.468469 52:-1 53:0.24324 54:1 55:-1 56:-1 57:0.48647 58:-1 59:-1 60:-1 61:-1 62:-1 63:-0.594594 64:-1 65:-1 66:0.864831 67:-1 
0 0.1251886621913369 0:-1 1:0.142865 2:0.333313 3:-0.0217462 4:-1 5:1 6:-0.307576 7:-1 8:-1 9:0.608688 10:-1 11:-0.530437 12:-1 13:-1 14:-1 15:-1 16:-1 17:-0.144925 18:-1 19:-1 20:-1 21:-1 22:-1 23:-0.298142 24:-0.0217352 25:-1 26:-0.0543533 27:-1 28:-0.347833 29:-0.144925 30:0.608688 31:-1 32:-1 33:-0.358703 34:0.891293 35:-0.434785 36:-1 37:-1 38:-1 39:1 40:-1 41:-1 42:0.282613 43:-1 44:-1 45:-0.234785 46:1 47:-0.243479 48:-0.0217352 49:-1 50:-1 51:-1 52:-0.608698 53:1 54:-1 55:-1 56:-0.144925 57:-1 58:-1 59:0.695644 60:-0.340583 61:-1 62:-1 63:-1 64:-1 65:-1 66:-1 67:-1 
-2.180701901521842 6.773295112321527 0:-0.819925 1:-0.402571 2:-0.303015 3:-0.74431 4:-1 5:-0.477284 6:-0.819019 7:-0.914333 8:-0.737206 9:-0.789766 10:-0.574366 11:-0.877269 12:-0.689781 13:-0.374997 14:-0.262028 15:-1 16:-0.1591 17:0.117431 18:-0.818176 19:-1 20:-0.744307 21:-1 22:1 23:-0.633106 24:0.0227252 25:-1 26:-0.0113753 27:-0.701285 28:-1 29:-0.776506 30:-0.579532 31:-0.789766 32:-1 33:0.00567872 34:-1 35:-0.55683 36:-1 37:-0.0707174 38:0.0308886 39:-0.651502 40:-0.219666 41:0.120118 42:0.340905 43:-0.436203 44:-1 45:1 46:-0.869315 47:-1 48:-0.744307 49:-0.69319 50:-0.181847 51:-0.888254 52:-0.897724 53:-0.65152 54:-0.1591 55:-0.553012 56:-0.106063 57:-0.374986 58:-0.272704 59:-0.55683 60:-0.138259 61:-0.890148 62:-0.0625074 63:-0.82954 64:-1 65:-0.0802442 66:-0.215897 67:0.176085 
-4.446162309381371 4.701696335721799 0:-0.773623 1:-0.624478 2:-0.5619 3:0.124999 4:-1 5:0.0952359 6:-0.772483 7:-1 8:-0.00890318 9:-0.471417 10:-0.732462 11:-0.845711 12:-1 13:-0.887753 14:-1 15:-0.816323 16:0.321419 17:-0.719039 18:-0.542848 19:-0.492486 20:-0.357124 21:-1 22:-1 23:-0.308151 24:-0.0356854 25:-1 26:-0.378559 27:-0.624478 28:0.714281 29:-0.719039 30:-0.471417 31:-0.735709 32:-0.399992 33:-0.789283 34:-1 35:0.485719 36:0.657106 37:0.460307 38:-1 39:-0.780947 40:-1 41:0.971414 42:0.264322 43:-1 44:0.242873 45:-1 46:-0.671424 47:-0.751422 48:-1 49:-0.871426 50:0.0285838 51:-0.157146 52:-0.871426 53:-0.890474 54:-1 55:0.966684 56:-0.438079 57:-1 58:0.828544 59:-1 60:-0.783329 61:-0.861902 62:-1 63:-0.785709 64:0.335402 65:-0.339292 66:-0.0142828 67:-1 
-0 5.999054085077646 0:0.0334511 1:1 2:1 3:-0.877713 4:-1 5:-1 6:-1 7:-0.918057 8:-1 9:-0.396751 10:-1 11:-1 12:-0.406516 13:0.366464 14:1 15:-1 16:-0.798905 17:0.496371 18:-0.130432 19:-1 20:-1 21:-1 22:-1 23:-0.824527 24:-0.755423 25:-1 26:-0.763577 27:1 28:-0.836951 29:-0.786221 30:-0.195619 31:-1 32:-1 33:-0.519035 34:-1 35:-0.434785 36:0.891309 37:1 38:-0.506962 39:-1 40:0.865962 41:0.285717 42:0.60328 43:-1 44:-1 45:-0.234785 46:-1 47:-1 48:-0.755423 49:-1 50:-1 51:-0.893112 52:-0.90217 53:-0.750006 54:-0.195656 55:-1 56:-0.358704 57:-1 58:-0.30432 59:-1 60:0.813419 61:-0.894923 62:0.693834 63:-1 64:0.422487 65:-1 66:-1 67:-1 
-3.073609365759862 3.118281759470594 0:0.148272 1:-1 2:-1 3:-1 4:-0.4725 5:-0.555545 6:-1 7:-0.56298 8:-0.329695 9:-0.463758 10:-0.185775 11:-0.686951 12:-0.868123 13:-0.886135 14:-1 15:-1 16:-0.195656 17:-0.714988 18:-0.304352 19:-0.0732338 20:-0.673927 21:1 22:-1 23:-0.532084 24:-0.673927 25:-0.746391 26:-1 27:-1 28:0.0869546 29:0.140126 30:-0.463795 31:-0.731898 32:0.217377 33:-0.144918 34:-0.684799 35:-0.246363 36:-0.579735 37:-0.407397 38:-0.342677 39:-0.333333 40:-0.0048067 41:1 42:0.710189 43:-0.280939 44:-1 45:-0.74494 46:-0.833343 47:-1 48:-1 49:-0.869572 50:-0.304342 51:-0.429942 52:-0.608698 53:-0.888895 54:-1 55:0.425138 56:-0.144925 57:0.594214 58:-1 59:-1 60:-1 61:-1 62:-1 63:-1 64:-0.729061 65:-0.329695 66:1 67:1 
-4.673026592095646 9.742814988314031 0:0.695153 1:-1 2:-0.85734 3:-0.895353 4:-0.153496 5:-0.928669 6:1 7:-0.894808 8:0.398284 9:-0.311614 10:0.0452451 11:-0.924648 12:0.48139 13:-1 14:-0.899319 15:-0.910296 16:-0.913938 17:-0.817059 18:-0.702336 19:-0.900853 20:-0.686032 21:-0.871605 22:-0.897678 23:0.0511566 24:-0.790703 25:-0.593021 26:-0.494182 27:-0.877717 28:-0.162794 29:0.737998 30:-0.483701 31:-0.913938 32:-0.869773 33:-0.313952 34:-0.797681 35:-0.939524 36:-1 37:-0.239262 38:0.0548374 39:-0.857368 40:-0.680629 41:0.467087 42:-0.451177 43:1 44:-0.865093 45:-0.754409 46:-0.732557 47:-1 48:-0.686032 49:0.004653 50:-0.553508 51:-0.634102 52:-0.916282 53:-0.964335 54:-0.913938 55:-0.817059 56:0.372116 57:-0.744198 58:-1 59:-0.455819 60:-0.506203 61:-0.595352 62:-0.914732 63:-0.82558 64:1 65:-0.462202 66:-1 67:-1 
-8.645647294956403 5.21402407091194 0:-0.897444 1:0.58794 2:-0.206047 3:-0.781548 4:-0.685873 5:-0.47069 6:-0.931296 7:-0.31691 8:-0.900238 9:-0.28157 10:-0.838383 11:0.188347 12:-0.489544 13:-0.762683 14:-0.229384 15:-0.694875 16:-0.361379 17:-0.830275 18:-0.378656 19:-0.00357394 20:0.165062 21:-0.821373 22:-0.596542 23:-0.582062 24:-0.174737 25:-0.924505 26:-0.812297 27:-0.773151 28:-0.255674 29:-0.66055 30:-0.840382 31:-0.521035 32:-0.365692 33:-0.777247 34:-0.577658 35:-0.691484 36:-0.749732 37:-0.470693 38:-1 39:-0.768435 40:0.777793 41:0.0633415 42:-0.872736 43:-0.96431 44:-0.937418 45:-0.848112 46:-0.776694 47:-0.399349 48:-0.805823 49:-0.980578 50:-0.792882 51:-0.809056 52:-0.398061 53:-0.784966 54:-0.321456 55:-0.745432 56:-0.872716 57:-1 58:-0.309632 59:-0.859756 60:-0.574605 61:-0.603743 62:-0.604459 63:-0.644019 64:-0.959655 65:-0.700645 66:-0.85117 67:0.0420203 
-3.757739292469755 -4.837649214418644 0:0.497267 1:-0.917199 2:-0.420467 3:-0.858273 4:-0.312125 5:-0.9517 6:-0.448233 7:-0.90503 8:-0.198807 9:-0.00943501 10:0.17967 11:-0.948981 12:-0.627409 13:-0.851516 14:-0.863645 15:-0.898763 16:-0.359048 17:-0.876099 18:-0.647232 19:-0.910488 20:-0.645666 21:-0.0437735 22:-0.861422 23:-0.237348 24:-0.858249 25:-1 26:-0.109468 27:-0.254896 28:-1 29:-0.13281 30:0.165353 31:-0.650387 32:-0.206317 33:-0.628361 34:-0.657481 35:-0.467727 36:-0.908651 37:0.0946783 38:1 39:-0.613659 40:-0.0267802 41:-0.00652538 42:-0.163785 43:-0.218655 44:-0.269321 45:-0.390228 46:-0.855124 47:0.0960658 48:-0.291333 49:-0.603154 50:0.209446 51:-0.783195 52:-0.744886 53:-0.830966 54:-0.825212 55:-0.256672 56:0.424666 57:0.559014 58:-0.596864 59:-0.508652 60:-0.570085 61:-0.604207 62:-0.769037 63:-0.81103 64:0.177685 65:-0.854335 66:-0.891327 67:-0.34803 
-0.9138083724205692 -0.3314341864504607 0:-1 1:-0.0441343 2:-1 3:-1 4:-1 5:-0.442415 6:-1 7:-1 8:0.681844 9:-0.327265 10:-1 11:-0.607268 12:-0.669087 13:1 14:-0.212824 15:-0.766232 16:-1 17:-1 18:0.74544 19:-1 20:-1 21:0.00364319 22:-1 23:0.174036 24:-1 25:0.272737 26:-1 27:0.911731 28:-0.454543 29:-1 30:-1 31:-1 32:-0.490907 33:-1 34:-1 35:-1 36:0.0545486 37:-0.256558 38:0.649385 39:-1 40:-1 41:-0.283115 42:0.0727477 43:-0.398594 44:-1 45:-1 46:-1 47:-1 48:-1 49:-0.018189 50:-1 51:-1 52:-0.672724 53:-0.72121 54:-0.327265 55:-1 56:-1 57:1 58:0.163648 59:-0.527268 60:-0.448479 61:-0.64848 62:1 63:-0.727269 64:-1 65:-1 66:-1 67:-1 
-0 -3.917262445169939 0:0.668024 1:-0.209421 2:0.383422 3:-1 4:-1 5:-1 6:-0.760507 7:-1 8:0.0432209 9:0.112776 10:0.126447 11:-1 12:-1 13:-0.172927 14:-0.511727 15:-0.903327 16:-0.443593 17:-0.70425 18:-0.759392 19:-1 20:-1 21:0.245087 22:-0.172931 23:-0.0290087 24:-1 25:-0.736836 26:-0.0188138 27:-0.60471 28:-1 29:-1 30:-1 31:-0.721797 32:-0.578939 33:-0.556382 34:-0.672923 35:0.172939 36:-0.127802 37:-0.385112 38:0.364177 39:-0.538832 40:-1 41:0.185806 42:-0.11275 43:-0.751294 44:0.308239 45:-0.73533 46:-1 47:-1 48:0.0150302 49:-0.323307 50:0.0826793 51:-0.852126 52:-1 53:-0.884709 54:-0.443593 55:-0.70425 56:-1 57:-0.586459 58:0.443584 59:-1 60:-0.771923 61:-0.273181 62:-0.172929 63:-0.774429 64:0.124551 65:-0.47839 66:0.556338 67:0.0376044 
-1.12649586316813 -3.218781584492186 0:-0.669862 1:-0.452357 2:0.277745 3:-1 4:-1 5:-1 6:-0.00463442 7:-1 8:-0.0364683 9:0.156251 10:-1 11:-0.775003 12:-1 13:-0.181555 14:-0.549025 15:-0.598215 16:-0.614571 17:-0.590261 18:1 19:-0.555922 20:-1 21:0.724994 22:-1 23:0.00892699 24:-1 25:-1 26:-0.0937643 27:0.0952343 28:-1 29:-0.590261 30:-1 31:-1 32:0.458315 33:0.229169 34:-1 35:-1 36:0.208306 37:-0.148161 38:-1 39:-1 40:-1 41:0.232134 42:0.229158 43:-1 44:-0.395818 45:0.100004 46:-0.76041 47:-0.275008 48:-1 49:-1 50:1 51:-1 52:-0.812494 53:-0.840273 54:-0.229178 55:-0.590261 56:-0.180561 57:-1 58:1 59:-0.729158 60:-0.684017 61:-1 62:-0.0451458 63:-0.531249 64:-0.610492 65:-1 66:-1 67:-1 
-3.703777962919786 -5.242321320236862 0:-0.651734 1:-0.422285 2:-1 3:-0.505496 4:-1 5:-0.663002 6:-1 7:-0.83432 8:0.0164882 9:-0.186813 10:-1 11:-0.643956 12:-0.6 13:-0.481948 14:0.427282 15:-0.858713 16:-0.186813 17:-0.567762 18:-0.296704 19:-1 20:-1 21:-1 22:-0.032967 23:0.0643615 24:0.48353 25:-1 26:-1 27:-0.422285 28:-0.670332 29:-1 30:-0.186813 31:-1 32:-0.0769295 33:-0.675826 34:-0.0439568 35:1 36:-0.362642 37:-1 38:-0.00312968 39:-0.326004 40:-1 41:-0.566723 42:-0.351643 43:-1 44:-1 45:0.160442 46:-1 47:-1 48:-1 49:-0.604396 50:-1 51:-0.783883 52:-1 53:-1 54:-0.186813 55:-0.567762 56:-0.135524 57:-0.395611 58:0.406592 59:-0.714286 60:1 61:-0.362636 62:-0.194141 63:-1 64:-0.589104 65:-1 66:-1 67:-1 
-4.849267218683242 -9.093226050517229 0:0.680638 1:-0.0043372 2:-0.535343 3:-0.403413 4:-0.724238 5:-0.883834 6:-0.276106 7:-0.942889 8:-0.124066 9:-0.579532 10:-0.432488 11:-0.95909 12:-0.448485 13:-0.583337 14:-0.672003 15:-0.902595 16:-0.719688 17:-0.851004 18:-0.515136 19:-1 20:-1 21:-1 22:-0.666656 23:0.100651 24:-0.488615 25:-0.337137 26:-0.505666 27:-0.601714 28:-0.886361 29:-0.106063 30:-0.719688 31:-1 32:-0.257584 33:-0.553019 34:-0.340888 35:-0.409097 36:-0.12119 37:-0.225605 38:0.374518 39:-0.883834 40:0.300488 41:-0.701291 42:0.117411 43:0.503514 44:-0.560595 45:-0.599986 46:-0.825753 47:0.0545493 48:-0.659077 49:-0.318177 50:-0.636355 51:-0.851005 52:-0.863632 53:-0.883835 54:-0.859844 55:-0.404016 56:-0.106063 57:-0.791662 58:-0.272704 59:-0.409097 60:-0.655292 61:-0.487375 62:-0.583339 63:-0.94318 64:0.133077 65:0.0511528 66:-1 67:-1 
-0 -0.6303431692867905 0:1 1:-0.744815 2:-1 3:-0.781548 4:-0.646635 5:-0.851143 6:-0.536144 7:-1 8:-0.326457 9:-0.28157 10:1 11:-0.895143 12:-0.911657 13:-0.771153 14:-0.579678 15:-0.937592 16:-0.461168 17:-1 18:-1 19:-0.931022 20:-1 21:-0.464065 22:-0.893212 23:-0.0596478 24:-1 25:-0.83011 26:-0.577658 27:-0.489578 28:-1 29:0.527524 30:-0.640804 31:-0.640767 32:-0.72815 33:-0.713586 34:-0.788851 35:-0.495157 36:-0.71847 37:0.190931 38:0.761419 39:-0.851143 40:1 41:-0.617191 42:0.145613 43:0.284545 44:0.407766 45:-0.316519 46:-1 47:0.351464 48:-0.781568 49:-0.737866 50:0.631075 51:-0.809056 52:-0.825238 53:-1 54:-0.820402 55:-0.236258 56:0.718449 57:0.601914 58:-0.067968 59:-0.621362 60:0.030758 61:-0.436896 62:-0.644022 63:-0.92719 64:-0.0924319 65:-0.663229 66:-0.66508 67:-0.66508 
-1.48207969704041 -2.608359391300909 0:-0.825851 1:-1 2:-1 3:-0.876363 4:1 5:-1 6:-0.824975 7:-1 8:-0.745855 9:0.21978 10:-1 11:-0.881319 12:1 13:-0.654632 14:-0.76212 15:-1 16:-0.593407 17:-0.783861 18:-0.472512 19:-0.765754 20:-0.50549 21:-0.0900861 22:-0.032967 23:-0.645213 24:-0.50549 25:-1 26:-0.282946 27:-0.133402 28:-1 29:-0.135524 30:0.219817 31:-0.796685 32:-0.0769295 33:-0.513725 34:-0.521978 35:0.428571 36:0.274715 37:-1 38:-1 39:-0.494488 40:-0.245416 41:-1 42:-0.675792 43:-0.454759 44:-0.681292 45:-0.419761 46:-1 47:-1 48:0.236297 49:-0.604396 50:-0.472532 51:-1 52:-0.703288 53:-0.915743 54:-0.593407 55:-0.351623 56:-0.351623 57:-0.395611 58:-0.296704 59:1 60:-0.499985 61:-0.468854 62:-0.496329 63:-0.917575 64:-0.383637 65:-0.872927 66:-0.241772 67:-1 
-2.254544983922464 -5.669788989944517 0:0.121841 1:0.395736 2:-0.457205 3:-0.601773 4:-0.355731 5:-1 6:-0.436257 7:-0.733153 8:-0.590685 9:-1 10:-1 11:-0.808851 12:-0.677878 13:-0.582802 14:-0.42529 15:-0.317326 16:0.309727 17:-0.303833 18:-0.150432 19:-0.874237 20:-0.601746 21:-1 22:-0.610622 23:1 24:-1 25:-0.380537 26:-0.230093 27:0.860947 28:-1 29:0.0442701 30:0.964628 31:-0.67255 32:0.486707 33:-0.738927 34:-0.230093 35:-1 36:0.0265348 37:0.447386 38:-1 39:-1 40:0.21534 41:0.0467817 42:0.0442504 43:-1 44:-0.486704 45:-0.688479 46:-1 47:-1 48:-1 49:-0.8407 50:-1 51:-0.65192 52:-1 53:-1 54:-1 55:-1 56:-0.651897 57:-1 58:-0.4336 59:-1 60:-0.46313 61:-1 62:-0.188787 63:-0.0707927 64:-1 65:-0.795343 66:-0.38936 67:-0.38936 
